svm_type c_svc
kernel_type polynomial
degree 3
gamma 0.5
coef0 0
nr_class 2
total_sv 6
rho -3.8556567809319175
label 1 0
nr_sv 2 4
SV
0.00018229245927931613 1:0.7798 2:0.6261 3:16.8932 4:1.0015 5:0.9407 6:1 7:0.8645 8:0.9912 9:0.7576 10:0.9868 11:0.687 12:0.9985 13:0.919 14:0.9897 15:0.8054 16:0.9853 17:0.7303 18:0.9912 19:0.8764 20:0.9868 21:0.7947 22:0.9956 23:0.9068 
0.00016604529678361098 1:0.889 2:0.4579 3:18.5665 4:1.0089 5:0.9161 6:1.0074 7:0.8915 8:1.018 9:0.7854 10:1.0288 11:0.7081 12:0.9985 13:0.9732 14:1.009 15:0.8573 16:1.0197 17:0.7729 18:1.0105 19:0.8809 20:1.0212 21:0.7942 22:1.0106 23:0.9016 
-9.110550127354765e-06 1:0.6306 2:0.7761 3:16.2583 4:1.0014 5:0.9585 6:1.0718 7:0.9607 8:1.1476 9:0.9337 10:1.2043 11:0.8984 12:1.0704 13:1.0023 14:1.146 15:0.9742 16:1.2026 17:0.9373 18:1.0706 19:0.9719 20:1.1236 21:0.9351 22:1.0494 23:0.9622 
-6.4077414445015121e-05 1:0.4359 2:0.9 3:16.0444 4:1.0228 5:1.0248 6:1.0084 7:0.9149 8:1.0812 9:0.9409 10:1.1729 11:0.8894 12:0.986 13:0.8928 14:1.0571 15:0.9182 16:1.1468 17:0.8679 18:1.0722 19:1.0284 20:1.1631 21:0.9721 22:1.0848 23:0.9452 
-2.2811035017021691e-05 1:0.8257 2:0.5641 3:17.3473 4:0.8871 5:0.9326 6:1.1841 7:0.9747 8:1.0143 9:0.9258 10:1.072 11:0.9059 12:1.3347 13:1.0451 14:1.1434 15:0.9927 16:1.2083 17:0.9714 18:0.8566 19:0.9498 20:0.9053 21:0.9294 22:1.0568 23:0.9785 
-0.00025233875647353573 1:0.873 2:0.4878 3:18.1512 4:1.0312 5:0.9474 6:0.973 7:0.9369 8:0.9707 9:0.9088 10:0.952 11:0.8723 12:0.9436 13:0.9889 14:0.9413 15:0.9592 16:0.9233 17:0.9207 18:0.9976 19:0.97 20:0.9784 21:0.931 22:0.9808 23:0.9598 
